# LAMMPS SNAP coefficients for W

1 56
W 0.5 1
  0.000000000000 # B[0, 0, 0, 0] 
  0.015793096489 # B[1, 0, 0, 0] 
 -0.016849827611 # B[2, 1, 0, 1] 
  0.273384755806 # B[3, 1, 1, 2] 
 -0.086264586934 # B[4, 2, 0, 2] 
  0.104117092446 # B[5, 2, 1, 3] 
 -0.056964378338 # B[6, 2, 2, 2] 
 -0.045257563778 # B[7, 2, 2, 4] 
 -0.074556332393 # B[8, 3, 0, 3] 
 -0.081069492145 # B[9, 3, 1, 4] 
 -0.146553069249 # B[10, 3, 2, 3] 
 -0.122888465697 # B[11, 3, 2, 5] 
 -0.130932789978 # B[12, 3, 3, 4] 
 -0.043067751124 # B[13, 3, 3, 6] 
 -0.056068205330 # B[14, 4, 0, 4] 
 -0.069933799280 # B[15, 4, 1, 5] 
 -0.078663451361 # B[16, 4, 2, 4] 
 -0.067767264410 # B[17, 4, 2, 6] 
 -0.125058049409 # B[18, 4, 3, 5] 
 -0.030517275677 # B[19, 4, 3, 7] 
 -0.039325744712 # B[20, 4, 4, 4] 
 -0.034860106657 # B[21, 4, 4, 6] 
 -0.007843157131 # B[22, 4, 4, 8] 
 -0.038574822572 # B[23, 5, 0, 5] 
 -0.007038396648 # B[24, 5, 1, 6] 
 -0.001828399180 # B[25, 5, 2, 5] 
 -0.006276881560 # B[26, 5, 2, 7] 
 -0.055727989001 # B[27, 5, 3, 6] 
 -0.018439052881 # B[28, 5, 3, 8] 
 -0.042549774191 # B[29, 5, 4, 5] 
 -0.052129253639 # B[30, 5, 4, 7] 
 -0.010042124882 # B[31, 5, 5, 6] 
 -0.003774268704 # B[32, 5, 5, 8] 
 -0.028181544667 # B[33, 6, 0, 6] 
 -0.012337415664 # B[34, 6, 1, 7] 
 -0.014307054630 # B[35, 6, 2, 6] 
 -0.004208345064 # B[36, 6, 2, 8] 
 -0.027087364027 # B[37, 6, 3, 7] 
  0.009733737705 # B[38, 6, 4, 6] 
 -0.010068774040 # B[39, 6, 4, 8] 
  0.017233527221 # B[40, 6, 5, 7] 
  0.000167701054 # B[41, 6, 6, 6] 
  0.007846307754 # B[42, 6, 6, 8] 
 -0.017012517382 # B[43, 7, 0, 7] 
  0.004570909478 # B[44, 7, 1, 8] 
  0.010409719559 # B[45, 7, 2, 7] 
  0.003469284973 # B[46, 7, 3, 8] 
  0.006100885784 # B[47, 7, 4, 7] 
  0.026498621854 # B[48, 7, 5, 8] 
  0.018248460935 # B[49, 7, 6, 7] 
  0.011502554703 # B[50, 7, 7, 8] 
 -0.007469466054 # B[51, 8, 0, 8] 
  0.003163866852 # B[52, 8, 2, 8] 
  0.009843603886 # B[53, 8, 4, 8] 
  0.004954473981 # B[54, 8, 6, 8] 
  0.005150279681 # B[55, 8, 8, 8] 
